{"learner":{"attributes":{"scikit_learn":"{\"_estimator_type\": \"regressor\"}"},"feature_names":["Units_Sold","Unit_Price","Month","Year","Interpolated_Flag_Num","Product_Beta","Product_Delta","Product_Gamma","Price_x_Beta","Price_x_Gamma","Price_x_Delta","Sold_x_Beta","Sold_x_Gamma","Sold_x_Delta","Day","Weekday","IsWeekend","Quarter","DayOfYear","Month_x_Beta","Month_x_Gamma","Month_x_Delta"],"feature_types":["float","float","int","int","int","i","i","i","float","float","float","float","float","float","int","int","int","int","int","int","int","int"],"gradient_booster":{"model":{"gbtree_model_param":{"num_parallel_tree":"1","num_trees":"50"},"iteration_indptr":[0,1,2,3,4,5,6,7,8,9,10,11,12,13,14,15,16,17,18,19,20,21,22,23,24,25,26,27,28,29,30,31,32,33,34,35,36,37,38,39,40,41,42,43,44,45,46,47,48,49,50],"tree_info":[0,0,0,0,0,0,0,0,0,0,0,0,0,0,0,0,0,0,0,0,0,0,0,0,0,0,0,0,0,0,0,0,0,0,0,0,0,0,0,0,0,0,0,0,0,0,0,0,0,0],"trees":[{"base_weights":[7.924203E-7,-1.9966335E1,6.702984E2,-1.4211167E1,-2.8186182E2,9.4060114E2,-3.6388857E0,-2.1594297E1,-5.258713E-1,-3.667827E1,7.2277135E-1,5.7556427E1,2.4622905E0,1.7189196E-1,-4.448084E-1],"categories":[],"categories_nodes":[],"categories_segments":[],"categories_sizes":[],"default_left":[0,0,0,0,0,0,0,0,0,0,0,0,0,0,0],"id":0,"left_children":[1,3,5,7,9,11,13,-1,-1,-1,-1,-1,-1,-1,-1],"loss_changes":[3.2387835E6,3.5019872E5,1.2785922E6,3.5184056E5,6.7984175E5,8.81585E5,1.4219661E2,0E0,0E0,0E0,0E0,0E0,0E0,0E0,0E0],"parents":[2147483647,0,0,1,1,2,2,3,3,4,4,5,5,6,6],"right_children":[2,4,6,8,10,12,14,-1,-1,-1,-1,-1,-1,-1,-1],"split_conditions":[1.5E2,1.45E2,1E0,8.6E1,7.8571205E1,1.6E2,1.52E2,-2.1594297E1,-5.258713E-1,-3.667827E1,7.2277135E-1,5.7556427E1,2.4622905E0,1.7189196E-1,-4.448084E-1],"split_indices":[0,11,5,0,1,0,0,0,0,0,0,0,0,0,0],"split_type":[0,0,0,0,0,0,0,0,0,0,0,0,0,0,0],"sum_hessian":[2.4E2,2.34E2,6E0,2.3E2,4E0,4E0,2E0,1E0,2.29E2,1E0,3E0,3E0,1E0,1E0,1E0],"tree_param":{"num_deleted":"0","num_feature":"22","num_nodes":"15","size_leaf_vector":"1"}},{"base_weights":[6.9305147E-3,-1.9215149E1,6.453186E2,-1.3596368E1,-2.7495984E2,9.055748E2,-3.5479136E0,-2.1054441E1,-4.9969202E-1,-3.5761314E1,6.956674E-1,5.539806E1,2.4007332E0,1.6759466E-1,-4.3368816E-1],"categories":[],"categories_nodes":[],"categories_segments":[],"categories_sizes":[],"default_left":[0,0,0,0,0,0,0,0,0,0,0,0,0,0,0],"id":1,"left_children":[1,3,5,7,9,11,13,-1,-1,-1,-1,-1,-1,-1,-1],"loss_changes":[3.00182E6,3.339503E5,1.1853138E6,3.349003E5,6.45857E5,8.1459425E5,1.3517563E2,0E0,0E0,0E0,0E0,0E0,0E0,0E0,0E0],"parents":[2147483647,0,0,1,1,2,2,3,3,4,4,5,5,6,6],"right_children":[2,4,6,8,10,12,14,-1,-1,-1,-1,-1,-1,-1,-1],"split_conditions":[1.5E2,1.45E2,1E0,8.6E1,7.8571205E1,1.6E2,1.52E2,-2.1054441E1,-4.9969202E-1,-3.5761314E1,6.956674E-1,5.539806E1,2.4007332E0,1.6759466E-1,-4.3368816E-1],"split_indices":[0,11,5,0,1,0,0,0,0,0,0,0,0,0,0],"split_type":[0,0,0,0,0,0,0,0,0,0,0,0,0,0,0],"sum_hessian":[2.4E2,2.34E2,6E0,2.3E2,4E0,4E0,2E0,1E0,2.29E2,1E0,3E0,3E0,1E0,1E0,1E0],"tree_param":{"num_deleted":"0","num_feature":"22","num_nodes":"15","size_leaf_vector":"1"}},{"base_weights":[1.0370818E-2,-1.8495329E1,6.212716E2,-1.3009858E1,-2.6822495E2,8.7185583E2,-3.4592159E0,-2.052808E1,-4.7481614E-1,-3.486728E1,6.6957986E-1,5.332063E1,2.340715E0,1.6340479E-1,-4.22846E-1],"categories":[],"categories_nodes":[],"categories_segments":[],"categories_sizes":[],"default_left":[0,0,0,0,0,0,0,0,0,0,0,0,0,0,0],"id":2,"left_children":[1,3,5,7,9,11,13,-1,-1,-1,-1,-1,-1,-1,-1],"loss_changes":[2.7822375E6,3.1843325E5,1.0988495E6,3.187648E5,6.1357594E5,7.5266375E5,1.2850136E2,0E0,0E0,0E0,0E0,0E0,0E0,0E0,0E0],"parents":[2147483647,0,0,1,1,2,2,3,3,4,4,5,5,6,6],"right_children":[2,4,6,8,10,12,14,-1,-1,-1,-1,-1,-1,-1,-1],"split_conditions":[1.5E2,1.45E2,1E0,8.6E1,7.8571205E1,1.6E2,1.52E2,-2.052808E1,-4.7481614E-1,-3.486728E1,6.6957986E-1,5.332063E1,2.340715E0,1.6340479E-1,-4.22846E-1],"split_indices":[0,11,5,0,1,0,0,0,0,0,0,0,0,0,0],"split_type":[0,0,0,0,0,0,0,0,0,0,0,0,0,0,0],"sum_hessian":[2.4E2,2.34E2,6E0,2.3E2,4E0,4E0,2E0,1E0,2.29E2,1E0,3E0,3E0,1E0,1E0,1E0],"tree_param":{"num_deleted":"0","num_feature":"22","num_nodes":"15","size_leaf_vector":"1"}},{"base_weights":[1.06874015E-2,-1.7805458E1,5.981226E2,-1.2450287E1,-2.6165323E2,8.3939526E2,-3.3727357E0,-2.0014877E1,-4.5117855E-1,-3.3995598E1,6.4447063E-1,5.1321106E1,2.282197E0,1.5931967E-1,-4.1227484E-1],"categories":[],"categories_nodes":[],"categories_segments":[],"categories_sizes":[],"default_left":[0,0,0,0,0,0,0,0,0,0,0,0,0,0,0],"id":3,"left_children":[1,3,5,7,9,11,13,-1,-1,-1,-1,-1,-1,-1,-1],"loss_changes":[2.5787575E6,3.0361625E5,1.01870225E6,3.0339675E5,5.829129E5,6.954135E5,1.221566E2,0E0,0E0,0E0,0E0,0E0,0E0,0E0,0E0],"parents":[2147483647,0,0,1,1,2,2,3,3,4,4,5,5,6,6],"right_children":[2,4,6,8,10,12,14,-1,-1,-1,-1,-1,-1,-1,-1],"split_conditions":[1.5E2,1.45E2,1E0,8.6E1,7.8571205E1,1.6E2,1.52E2,-2.0014877E1,-4.5117855E-1,-3.3995598E1,6.4447063E-1,5.1321106E1,2.282197E0,1.5931967E-1,-4.1227484E-1],"split_indices":[0,11,5,0,1,0,0,0,0,0,0,0,0,0,0],"split_type":[0,0,0,0,0,0,0,0,0,0,0,0,0,0,0],"sum_hessian":[2.4E2,2.34E2,6E0,2.3E2,4E0,4E0,2E0,1E0,2.29E2,1E0,3E0,3E0,1E0,1E0,1E0],"tree_param":{"num_deleted":"0","num_feature":"22","num_nodes":"15","size_leaf_vector":"1"}},{"base_weights":[8.216359E-3,-1.7144194E1,5.7583795E2,-1.191637E1,-2.552408E2,8.081462E2,-3.288417E0,-1.9514505E1,-4.287177E-1,-3.3145706E1,6.20303E-1,4.939657E1,2.225142E0,1.5533666E-1,-4.0196797E-1],"categories":[],"categories_nodes":[],"categories_segments":[],"categories_sizes":[],"default_left":[0,0,0,0,0,0,0,0,0,0,0,0,0,0,0],"id":4,"left_children":[1,3,5,7,9,11,13,-1,-1,-1,-1,-1,-1,-1,-1],"loss_changes":[2.3901975E6,2.8946928E5,9.444085E5,2.8876025E5,5.5378656E5,6.4249275E5,1.16125114E2,0E0,0E0,0E0,0E0,0E0,0E0,0E0,0E0],"parents":[2147483647,0,0,1,1,2,2,3,3,4,4,5,5,6,6],"right_children":[2,4,6,8,10,12,14,-1,-1,-1,-1,-1,-1,-1,-1],"split_conditions":[1.5E2,1.45E2,1E0,8.6E1,7.8571205E1,1.6E2,1.52E2,-1.9514505E1,-4.287177E-1,-3.3145706E1,6.20303E-1,4.939657E1,2.225142E0,1.5533666E-1,-4.0196797E-1],"split_indices":[0,11,5,0,1,0,0,0,0,0,0,0,0,0,0],"split_type":[0,0,0,0,0,0,0,0,0,0,0,0,0,0,0],"sum_hessian":[2.4E2,2.34E2,6E0,2.3E2,4E0,4E0,2E0,1E0,2.29E2,1E0,3E0,3E0,1E0,1E0,1E0],"tree_param":{"num_deleted":"0","num_feature":"22","num_nodes":"15","size_leaf_vector":"1"}},{"base_weights":[3.2677513E-3,-1.6510256E1,5.543854E2,-1.1406886E1,-2.4898386E2,7.7806323E2,-3.2062066E0,-1.9026644E1,-4.07375E-1,-3.2317066E1,5.970416E-1,4.7544197E1,2.1695135E0,1.5145326E-1,-3.9191875E-1],"categories":[],"categories_nodes":[],"categories_segments":[],"categories_sizes":[],"default_left":[0,0,0,0,0,0,0,0,0,0,0,0,0,0,0],"id":5,"left_children":[1,3,5,7,9,11,13,-1,-1,-1,-1,-1,-1,-1,-1],"loss_changes":[2.21546E6,2.7596353E5,8.75541E5,2.748213E5,5.261197E5,5.9357425E5,1.10391426E2,0E0,0E0,0E0,0E0,0E0,0E0,0E0,0E0],"parents":[2147483647,0,0,1,1,2,2,3,3,4,4,5,5,6,6],"right_children":[2,4,6,8,10,12,14,-1,-1,-1,-1,-1,-1,-1,-1],"split_conditions":[1.5E2,1.45E2,1E0,8.6E1,7.8571205E1,1.6E2,1.52E2,-1.9026644E1,-4.07375E-1,-3.2317066E1,5.970416E-1,4.7544197E1,2.1695135E0,1.5145326E-1,-3.9191875E-1],"split_indices":[0,11,5,0,1,0,0,0,0,0,0,0,0,0,0],"split_type":[0,0,0,0,0,0,0,0,0,0,0,0,0,0,0],"sum_hessian":[2.4E2,2.34E2,6E0,2.3E2,4E0,4E0,2E0,1E0,2.29E2,1E0,3E0,3E0,1E0,1E0,1E0],"tree_param":{"num_deleted":"0","num_feature":"22","num_nodes":"15","size_leaf_vector":"1"}},{"base_weights":[-3.8698283E-3,-1.3469329E1,6.3825964E2,-5.6586365E1,1.4770052E1,-3.8212082E-1,8.0164575E2,-2.182125E0,-3.1509138E1,-6.316735E-1,4.081113E0,5.2032867E1,2.1152756E0],"categories":[],"categories_nodes":[],"categories_segments":[],"categories_sizes":[],"default_left":[0,0,0,0,0,0,0,0,0,0,0,0,0],"id":6,"left_children":[1,3,5,7,9,-1,11,-1,-1,-1,-1,-1,-1],"loss_changes":[2.079874E6,2.894066E5,5.3378375E5,6.704051E5,2.6483712E5,0E0,6.8193875E5,0E0,0E0,0E0,0E0,0E0,0E0],"parents":[2147483647,0,0,1,1,2,2,3,3,4,4,6,6],"right_children":[2,4,6,8,10,-1,12,-1,-1,-1,-1,-1,-1],"split_conditions":[1.52E2,8.808909E1,7.773812E1,1.45E2,1.31E2,-3.8212082E-1,1.6E2,-2.182125E0,-3.1509138E1,-6.316735E-1,4.081113E0,5.2032867E1,2.1152756E0],"split_indices":[0,1,1,11,0,0,0,0,0,0,0,0,0],"split_type":[0,0,0,0,0,0,0,0,0,0,0,0,0],"sum_hessian":[2.4E2,2.36E2,4E0,9.3E1,1.43E2,1E0,3E0,9.2E1,1E0,1.02E2,4.1E1,2E0,1E0],"tree_param":{"num_deleted":"0","num_feature":"22","num_nodes":"13","size_leaf_vector":"1"}},{"base_weights":[9.393519E-2,-1.2923464E1,6.1709985E2,-1.6714973E1,1.4419293E1,-3.7256777E-1,7.751005E2,-2.9124525E0,5.206793E-1,5.0298443E1,2.062394E0],"categories":[],"categories_nodes":[],"categories_segments":[],"categories_sizes":[],"default_left":[0,0,0,0,0,0,0,0,0,0,0],"id":7,"left_children":[1,3,5,7,-1,-1,9,-1,-1,-1,-1],"loss_changes":[1.943642E6,2.755732E5,4.9917288E5,2.6539506E5,0E0,0E0,6.3619925E5,0E0,0E0,0E0,0E0],"parents":[2147483647,0,0,1,1,2,2,3,3,6,6],"right_children":[2,4,6,8,-1,-1,10,-1,-1,-1,-1],"split_conditions":[1.52E2,1.49E2,7.773812E1,8.808909E1,1.4419293E1,-3.7256777E-1,1.6E2,-2.9124525E0,5.206793E-1,5.0298443E1,2.062394E0],"split_indices":[0,13,1,1,0,0,0,0,0,0,0],"split_type":[0,0,0,0,0,0,0,0,0,0,0],"sum_hessian":[2.4E2,2.36E2,4E0,2.34E2,2E0,1E0,3E0,9.2E1,1.42E2,2E0,1E0],"tree_param":{"num_deleted":"0","num_feature":"22","num_nodes":"11","size_leaf_vector":"1"}},{"base_weights":[3.5486302E-1,-1.2226542E1,5.966425E2,-1.5889403E1,1.3938651E1,-3.6325356E-1,7.494357E2,-1.8423613E1,-6.4039856E-1,4.8621822E1,2.010834E0],"categories":[],"categories_nodes":[],"categories_segments":[],"categories_sizes":[],"default_left":[0,0,0,0,0,0,0,0,0,0,0],"id":8,"left_children":[1,3,5,7,-1,-1,9,-1,-1,-1,-1],"loss_changes":[1.81531E6,2.5704561E5,4.6680938E5,2.5059875E5,0E0,0E0,5.9351725E5,0E0,0E0,0E0,0E0],"parents":[2147483647,0,0,1,1,2,2,3,3,6,6],"right_children":[2,4,6,8,-1,-1,10,-1,-1,-1,-1],"split_conditions":[1.52E2,1.49E2,7.773812E1,8.6E1,1.3938651E1,-3.6325356E-1,1.6E2,-1.8423613E1,-6.4039856E-1,4.8621822E1,2.010834E0],"split_indices":[0,13,1,0,0,0,0,0,0,0,0],"split_type":[0,0,0,0,0,0,0,0,0,0,0],"sum_hessian":[2.4E2,2.36E2,4E0,2.34E2,2E0,1E0,3E0,1E0,2.33E2,2E0,1E0],"tree_param":{"num_deleted":"0","num_feature":"22","num_nodes":"11","size_leaf_vector":"1"}},{"base_weights":[5.2444166E-1,-1.163684E1,5.7686426E2,-1.7963022E1,-8.641568E0,-3.5417223E-1,7.246221E2,-6.085154E-1,1.3474029E1,4.7001095E1,1.9605631E0],"categories":[],"categories_nodes":[],"categories_segments":[],"categories_sizes":[],"default_left":[0,0,0,0,0,0,0,0,0,0,0],"id":9,"left_children":[1,3,5,-1,7,-1,9,-1,-1,-1,-1],"loss_changes":[1.6958894E6,2.4366622E5,4.36547E5,0E0,2.3489486E5,0E0,5.5369E5,0E0,0E0,0E0,0E0],"parents":[2147483647,0,0,1,1,2,2,4,4,6,6],"right_children":[2,4,6,-1,8,-1,10,-1,-1,-1,-1],"split_conditions":[1.52E2,8.6E1,7.773812E1,-1.7963022E1,1.49E2,-3.5417223E-1,1.6E2,-6.085154E-1,1.3474029E1,4.7001095E1,1.9605631E0],"split_indices":[0,0,1,0,13,0,0,0,0,0,0],"split_type":[0,0,0,0,0,0,0,0,0,0,0],"sum_hessian":[2.4E2,2.36E2,4E0,1E0,2.35E2,1E0,3E0,2.33E2,2E0,2E0,1E0],"tree_param":{"num_deleted":"0","num_feature":"22","num_nodes":"11","size_leaf_vector":"1"}},{"base_weights":[6.787582E-1,-1.1076507E1,5.5774255E2,-5.0113853E1,1.4483125E1,-3.4531793E-1,7.006314E2,-1.8741974E0,-3.0617376E1,-5.6433827E-1,3.8667939E0,4.5434395E1,1.911549E0],"categories":[],"categories_nodes":[],"categories_segments":[],"categories_sizes":[],"default_left":[0,0,0,0,0,0,0,0,0,0,0,0,0],"id":10,"left_children":[1,3,5,7,9,-1,11,-1,-1,-1,-1,-1,-1],"loss_changes":[1.5843501E6,2.371997E5,4.0824888E5,6.445369E5,2.341109E5,0E0,5.1652662E5,0E0,0E0,0E0,0E0,0E0,0E0],"parents":[2147483647,0,0,1,1,2,2,3,3,4,4,6,6],"right_children":[2,4,6,8,10,-1,12,-1,-1,-1,-1,-1,-1],"split_conditions":[1.52E2,8.808909E1,7.773812E1,1.45E2,1.31E2,-3.4531793E-1,1.6E2,-1.8741974E0,-3.0617376E1,-5.6433827E-1,3.8667939E0,4.5434395E1,1.911549E0],"split_indices":[0,1,1,11,0,0,0,0,0,0,0,0,0],"split_type":[0,0,0,0,0,0,0,0,0,0,0,0,0],"sum_hessian":[2.4E2,2.36E2,4E0,9.3E1,1.43E2,1E0,3E0,9.2E1,1E0,1.02E2,4.1E1,2E0,1E0],"tree_param":{"num_deleted":"0","num_feature":"22","num_nodes":"13","size_leaf_vector":"1"}},{"base_weights":[7.187278E-1,-1.2812351E1,4.5487372E2,-7.9702945E0,-2.339529E2,6.3977924E2,-4.9267983E0,-1.7467093E1,-2.4835967E-1,-2.9851942E1,3.0391484E-1,3.9054325E1,1.8637602E0,-3.2824885E-2,-3.36685E-1],"categories":[],"categories_nodes":[],"categories_segments":[],"categories_sizes":[],"default_left":[0,0,0,0,0,0,0,0,0,0,0,0,0,0,0],"id":11,"left_children":[1,3,5,7,9,11,13,-1,-1,-1,-1,-1,-1,-1,-1],"loss_changes":[1.4868229E6,2.4976744E5,5.982899E5,2.3507981E5,4.3938872E5,3.9657562E5,1.8727371E1,0E0,0E0,0E0,0E0,0E0,0E0,0E0,0E0],"parents":[2147483647,0,0,1,1,2,2,3,3,4,4,5,5,6,6],"right_children":[2,4,6,8,10,12,14,-1,-1,-1,-1,-1,-1,-1,-1],"split_conditions":[1.5E2,1.45E2,1E0,8.6E1,7.8571205E1,1.6E2,1.52E2,-1.7467093E1,-2.4835967E-1,-2.9851942E1,3.0391484E-1,3.9054325E1,1.8637602E0,-3.2824885E-2,-3.36685E-1],"split_indices":[0,11,5,0,1,0,0,0,0,0,0,0,0,0,0],"split_type":[0,0,0,0,0,0,0,0,0,0,0,0,0,0,0],"sum_hessian":[2.4E2,2.34E2,6E0,2.3E2,4E0,4E0,2E0,1E0,2.29E2,1E0,3E0,3E0,1E0,1E0,1E0],"tree_param":{"num_deleted":"0","num_feature":"22","num_nodes":"15","size_leaf_vector":"1"}},{"base_weights":[6.5492815E-1,-1.0374702E1,5.233284E2,-1.7030415E1,-7.532152E0,-3.2826787E-1,6.5744324E2,-1.3755053E-1,-9.517537E0,4.2618103E1,1.8171662E0],"categories":[],"categories_nodes":[],"categories_segments":[],"categories_sizes":[],"default_left":[0,0,0,0,0,0,0,0,0,0,0],"id":12,"left_children":[1,3,5,-1,7,-1,9,-1,-1,-1,-1],"loss_changes":[1.3947692E6,2.199077E5,3.5964925E5,0E0,2.0575958E5,0E0,4.5327875E5,0E0,0E0,0E0,0E0],"parents":[2147483647,0,0,1,1,2,2,4,4,6,6],"right_children":[2,4,6,-1,8,-1,10,-1,-1,-1,-1],"split_conditions":[1.52E2,8.6E1,7.773812E1,-1.7030415E1,1.45E2,-3.2826787E-1,1.6E2,-1.3755053E-1,-9.517537E0,4.2618103E1,1.8171662E0],"split_indices":[0,0,1,0,11,0,0,0,0,0,0],"split_type":[0,0,0,0,0,0,0,0,0,0,0],"sum_hessian":[2.4E2,2.36E2,4E0,1E0,2.35E2,1E0,3E0,2.3E2,5E0,2E0,1E0],"tree_param":{"num_deleted":"0","num_feature":"22","num_nodes":"11","size_leaf_vector":"1"}},{"base_weights":[6.944694E-1,-1.2004347E1,4.2691266E2,-7.4383874E0,-2.2055081E2,5.9859076E2,-1.5216932E0,-9.310979E-1,3.88747E0,-2.8867704E1,6.494257E-1,3.6526054E1,1.7717371E0,2.0593417E-1,-3.2006118E-1],"categories":[],"categories_nodes":[],"categories_segments":[],"categories_sizes":[],"default_left":[0,0,0,0,0,0,0,0,0,0,0,0,0,0,0],"id":13,"left_children":[1,3,5,7,9,11,13,-1,-1,-1,-1,-1,-1,-1,-1],"loss_changes":[1.3095292E6,2.2212992E5,5.1578038E5,2.2152238E5,4.2413694E5,3.4560112E5,1.0893177E2,0E0,0E0,0E0,0E0,0E0,0E0,0E0,0E0],"parents":[2147483647,0,0,1,1,2,2,3,3,4,4,5,5,6,6],"right_children":[2,4,6,8,10,12,14,-1,-1,-1,-1,-1,-1,-1,-1],"split_conditions":[1.5E2,1.45E2,1E0,1.39E2,7.8571205E1,1.6E2,1.52E2,-9.310979E-1,3.88747E0,-2.8867704E1,6.494257E-1,3.6526054E1,1.7717371E0,2.0593417E-1,-3.2006118E-1],"split_indices":[0,11,5,0,1,0,0,0,0,0,0,0,0,0,0],"split_type":[0,0,0,0,0,0,0,0,0,0,0,0,0,0,0],"sum_hessian":[2.4E2,2.34E2,6E0,2.3E2,4E0,4E0,2E0,2.04E2,2.6E1,1E0,3E0,3E0,1E0,1E0,1E0],"tree_param":{"num_deleted":"0","num_feature":"22","num_nodes":"15","size_leaf_vector":"1"}},{"base_weights":[7.1336323E-1,-9.63499E0,4.9108264E2,-1.6581377E1,-6.8654137E0,-3.1205964E-1,6.169739E2,-1.1957454E-1,-8.89836E0,3.9979965E1,1.7274437E0],"categories":[],"categories_nodes":[],"categories_segments":[],"categories_sizes":[],"default_left":[0,0,0,0,0,0,0,0,0,0,0],"id":14,"left_children":[1,3,5,-1,7,-1,9,-1,-1,-1,-1],"loss_changes":[1.2276895E6,2.0907581E5,3.1689425E5,0E0,1.802315E5,0E0,3.9783712E5,0E0,0E0,0E0,0E0],"parents":[2147483647,0,0,1,1,2,2,4,4,6,6],"right_children":[2,4,6,-1,8,-1,10,-1,-1,-1,-1],"split_conditions":[1.52E2,8.6E1,7.773812E1,-1.6581377E1,1.45E2,-3.1205964E-1,1.6E2,-1.1957454E-1,-8.89836E0,3.9979965E1,1.7274437E0],"split_indices":[0,0,1,0,11,0,0,0,0,0,0],"split_type":[0,0,0,0,0,0,0,0,0,0,0],"sum_hessian":[2.4E2,2.36E2,4E0,1E0,2.35E2,1E0,3E0,2.3E2,5E0,2E0,1E0],"tree_param":{"num_deleted":"0","num_feature":"22","num_nodes":"11","size_leaf_vector":"1"}},{"base_weights":[7.4323845E-1,-1.1173085E1,4.0068506E2,-6.8633494E0,-2.0804826E2,5.600072E2,1.5864893E0,-1.6166843E1,-2.0407827E-1,-2.7923553E1,9.587607E-1,3.415832E1,1.6842575E0,4.2324486E-1,-3.0425817E-1],"categories":[],"categories_nodes":[],"categories_segments":[],"categories_sizes":[],"default_left":[0,0,0,0,0,0,0,0,0,0,0,0,0,0,0],"id":15,"left_children":[1,3,5,7,9,11,13,-1,-1,-1,-1,-1,-1,-1,-1],"loss_changes":[1.1530434E6,1.9796488E5,4.4420812E5,2.0204366E5,4.0883025E5,3.0109462E5,2.0981656E2,0E0,0E0,0E0,0E0,0E0,0E0,0E0,0E0],"parents":[2147483647,0,0,1,1,2,2,3,3,4,4,5,5,6,6],"right_children":[2,4,6,8,10,12,14,-1,-1,-1,-1,-1,-1,-1,-1],"split_conditions":[1.5E2,1.45E2,1E0,8.6E1,7.8571205E1,1.6E2,1.52E2,-1.6166843E1,-2.0407827E-1,-2.7923553E1,9.587607E-1,3.415832E1,1.6842575E0,4.2324486E-1,-3.0425817E-1],"split_indices":[0,11,5,0,1,0,0,0,0,0,0,0,0,0,0],"split_type":[0,0,0,0,0,0,0,0,0,0,0,0,0,0,0],"sum_hessian":[2.4E2,2.34E2,6E0,2.3E2,4E0,4E0,2E0,1E0,2.29E2,1E0,3E0,3E0,1E0,1E0,1E0],"tree_param":{"num_deleted":"0","num_feature":"22","num_nodes":"15","size_leaf_vector":"1"}},{"base_weights":[6.754784E-1,-9.036079E0,4.6086826E2,-4.4772377E1,1.4768005E1,-2.966517E-1,5.790518E2,-1.6831688E0,-2.7225464E1,-4.5214602E-1,3.6121461E0,3.750869E1,1.6421512E0],"categories":[],"categories_nodes":[],"categories_segments":[],"categories_sizes":[],"default_left":[0,0,0,0,0,0,0,0,0,0,0,0,0],"id":16,"left_children":[1,3,5,7,9,-1,11,-1,-1,-1,-1,-1,-1],"loss_changes":[1.081239E6,2.0226997E5,2.7927662E5,5.0906988E5,1.9635322E5,0E0,3.4923538E5,0E0,0E0,0E0,0E0,0E0,0E0],"parents":[2147483647,0,0,1,1,2,2,3,3,4,4,6,6],"right_children":[2,4,6,8,10,-1,12,-1,-1,-1,-1,-1,-1],"split_conditions":[1.52E2,8.861026E1,7.773812E1,1.45E2,1.31E2,-2.966517E-1,1.6E2,-1.6831688E0,-2.7225464E1,-4.5214602E-1,3.6121461E0,3.750869E1,1.6421512E0],"split_indices":[0,1,1,11,0,0,0,0,0,0,0,0,0],"split_type":[0,0,0,0,0,0,0,0,0,0,0,0,0],"sum_hessian":[2.4E2,2.36E2,4E0,9.4E1,1.42E2,1E0,3E0,9.3E1,1E0,1.01E2,4.1E1,2E0,1E0],"tree_param":{"num_deleted":"0","num_feature":"22","num_nodes":"13","size_leaf_vector":"1"}},{"base_weights":[6.96084E-1,-8.692921E0,4.4559567E2,-1.5720593E1,-6.0652475E0,-2.892354E-1,5.5988696E2,-2.8901079E0,3.7258172E-1,3.62584E1,1.6010975E0],"categories":[],"categories_nodes":[],"categories_segments":[],"categories_sizes":[],"default_left":[0,0,0,0,0,0,0,0,0,0,0],"id":17,"left_children":[1,3,5,-1,7,-1,9,-1,-1,-1,-1],"loss_changes":[1.0105701E6,1.8848208E5,2.61183E5,0E0,1.6547064E5,0E0,3.2576275E5,0E0,0E0,0E0,0E0],"parents":[2147483647,0,0,1,1,2,2,4,4,6,6],"right_children":[2,4,6,-1,8,-1,10,-1,-1,-1,-1],"split_conditions":[1.52E2,8.6E1,7.773812E1,-1.5720593E1,2.02E3,-2.892354E-1,1.6E2,-2.8901079E0,3.7258172E-1,3.62584E1,1.6010975E0],"split_indices":[0,0,1,0,3,0,0,0,0,0,0],"split_type":[0,0,0,0,0,0,0,0,0,0,0],"sum_hessian":[2.4E2,2.36E2,4E0,1E0,2.35E2,1E0,3E0,4.8E1,1.87E2,2E0,1E0],"tree_param":{"num_deleted":"0","num_feature":"22","num_nodes":"11","size_leaf_vector":"1"}},{"base_weights":[7.414968E-1,-1.0058109E1,3.6319376E2,-5.916117E0,-1.9940651E2,5.0822293E2,4.1388002E-1,-8.1644374E-1,3.6681411E0,-2.6472574E1,7.733799E-1,3.0983398E1,1.56107E0,3.1304553E-1,-2.8200454E-1],"categories":[],"categories_nodes":[],"categories_segments":[],"categories_sizes":[],"default_left":[0,0,0,0,0,0,0,0,0,0,0,0,0,0,0],"id":18,"left_children":[1,3,5,7,9,11,13,-1,-1,-1,-1,-1,-1,-1,-1],"loss_changes":[9.470093E5,1.8312597E5,3.680853E5,1.9189131E5,3.6277997E5,2.4645038E5,1.4150536E2,0E0,0E0,0E0,0E0,0E0,0E0,0E0,0E0],"parents":[2147483647,0,0,1,1,2,2,3,3,4,4,5,5,6,6],"right_children":[2,4,6,8,10,12,14,-1,-1,-1,-1,-1,-1,-1,-1],"split_conditions":[1.5E2,1.45E2,1E0,1.39E2,7.8571205E1,1.6E2,1.52E2,-8.1644374E-1,3.6681411E0,-2.6472574E1,7.733799E-1,3.0983398E1,1.56107E0,3.1304553E-1,-2.8200454E-1],"split_indices":[0,11,5,0,1,0,0,0,0,0,0,0,0,0,0],"split_type":[0,0,0,0,0,0,0,0,0,0,0,0,0,0,0],"sum_hessian":[2.4E2,2.34E2,6E0,2.3E2,4E0,4E0,2E0,2.04E2,2.6E1,1E0,3E0,3E0,1E0,1E0,1E0],"tree_param":{"num_deleted":"0","num_feature":"22","num_nodes":"15","size_leaf_vector":"1"}},{"base_weights":[7.4478763E-1,-8.0650215E0,4.181808E2,-4.2166206E1,1.4251482E1,-2.749544E-1,5.254755E2,-1.5586324E0,-2.6614182E1,-3.801028E-1,3.3752682E0,3.4017006E1,1.5220432E0],"categories":[],"categories_nodes":[],"categories_segments":[],"categories_sizes":[],"default_left":[0,0,0,0,0,0,0,0,0,0,0,0,0],"id":19,"left_children":[1,3,5,7,9,-1,11,-1,-1,-1,-1,-1,-1],"loss_changes":[8.896577E5,1.8096248E5,2.3018269E5,4.8989203E5,1.6809831E5,0E0,2.8594325E5,0E0,0E0,0E0,0E0,0E0,0E0],"parents":[2147483647,0,0,1,1,2,2,3,3,4,4,6,6],"right_children":[2,4,6,8,10,-1,12,-1,-1,-1,-1,-1,-1],"split_conditions":[1.52E2,8.808909E1,7.773812E1,8.623939E1,1.31E2,-2.749544E-1,1.6E2,-1.5586324E0,-2.6614182E1,-3.801028E-1,3.3752682E0,3.4017006E1,1.5220432E0],"split_indices":[0,1,1,1,0,0,0,0,0,0,0,0,0],"split_type":[0,0,0,0,0,0,0,0,0,0,0,0,0],"sum_hessian":[2.4E2,2.36E2,4E0,9.3E1,1.43E2,1E0,3E0,9.2E1,1E0,1.02E2,4.1E1,2E0,1E0],"tree_param":{"num_deleted":"0","num_feature":"22","num_nodes":"13","size_leaf_vector":"1"}},{"base_weights":[7.4939984E-1,-7.7680054E0,4.0432452E2,-1.5268201E1,-5.2130904E0,-2.6808056E-1,5.080865E2,-5.5773903E-2,-8.105116E0,3.2883102E1,1.4839922E0],"categories":[],"categories_nodes":[],"categories_segments":[],"categories_sizes":[],"default_left":[0,0,0,0,0,0,0,0,0,0,0],"id":20,"left_children":[1,3,5,-1,7,-1,9,-1,-1,-1,-1],"loss_changes":[8.315573E5,1.7860694E5,2.1527331E5,0E0,1.5153678E5,0E0,2.6671244E5,0E0,0E0,0E0,0E0],"parents":[2147483647,0,0,1,1,2,2,4,4,6,6],"right_children":[2,4,6,-1,8,-1,10,-1,-1,-1,-1],"split_conditions":[1.52E2,8.6E1,7.773812E1,-1.5268201E1,1.45E2,-2.6808056E-1,1.6E2,-5.5773903E-2,-8.105116E0,3.2883102E1,1.4839922E0],"split_indices":[0,0,1,0,11,0,0,0,0,0,0],"split_type":[0,0,0,0,0,0,0,0,0,0,0],"sum_hessian":[2.4E2,2.36E2,4E0,1E0,2.35E2,1E0,3E0,2.3E2,5E0,2E0,1E0],"tree_param":{"num_deleted":"0","num_feature":"22","num_nodes":"11","size_leaf_vector":"1"}},{"base_weights":[7.562036E-1,-9.066876E0,3.30423E2,-1.4886497E1,-6.5609236E0,4.612955E2,2.1611607E0,-1.2744112E-1,-9.49027E0,2.8107523E1,1.4468924E0,4.2346558E-1,-2.6137853E-1],"categories":[],"categories_nodes":[],"categories_segments":[],"categories_sizes":[],"default_left":[0,0,0,0,0,0,0,0,0,0,0,0,0],"id":21,"left_children":[1,3,5,-1,7,9,11,-1,-1,-1,-1,-1,-1],"loss_changes":[7.834366E5,1.6803997E5,2.9972625E5,0E0,1.715519E5,2.017595E5,1.8410162E2,0E0,0E0,0E0,0E0,0E0,0E0],"parents":[2147483647,0,0,1,1,2,2,4,4,5,5,6,6],"right_children":[2,4,6,-1,8,10,12,-1,-1,-1,-1,-1,-1],"split_conditions":[1.5E2,8.6E1,1E0,-1.4886497E1,1.45E2,1.6E2,1.52E2,-1.2744112E-1,-9.49027E0,2.8107523E1,1.4468924E0,4.2346558E-1,-2.6137853E-1],"split_indices":[0,0,5,0,11,0,0,0,0,0,0,0,0],"split_type":[0,0,0,0,0,0,0,0,0,0,0,0,0],"sum_hessian":[2.4E2,2.34E2,6E0,1E0,2.33E2,4E0,2E0,2.29E2,4E0,3E0,1E0,1E0,1E0],"tree_param":{"num_deleted":"0","num_feature":"22","num_nodes":"13","size_leaf_vector":"1"}},{"base_weights":[7.400213E-1,-7.252721E0,3.79448E2,-3.967226E1,1.3960401E1,-2.5484407E-1,4.7685843E2,-1.4470013E0,-2.5944248E1,-3.5221034E-1,3.2569654E0,3.0850082E1,1.4107201E0],"categories":[],"categories_nodes":[],"categories_segments":[],"categories_sizes":[],"default_left":[0,0,0,0,0,0,0,0,0,0,0,0,0],"id":22,"left_children":[1,3,5,7,9,-1,11,-1,-1,-1,-1,-1,-1],"loss_changes":[7.3223856E5,1.6354339E5,1.8972388E5,4.684275E5,1.5525781E5,0E0,2.3408931E5,0E0,0E0,0E0,0E0,0E0,0E0],"parents":[2147483647,0,0,1,1,2,2,3,3,4,4,6,6],"right_children":[2,4,6,8,10,-1,12,-1,-1,-1,-1,-1,-1],"split_conditions":[1.52E2,8.808909E1,7.773812E1,8.623939E1,1.31E2,-2.5484407E-1,1.6E2,-1.4470013E0,-2.5944248E1,-3.5221034E-1,3.2569654E0,3.0850082E1,1.4107201E0],"split_indices":[0,1,1,1,0,0,0,0,0,0,0,0,0],"split_type":[0,0,0,0,0,0,0,0,0,0,0,0,0],"sum_hessian":[2.4E2,2.36E2,4E0,9.3E1,1.43E2,1E0,3E0,9.2E1,1E0,1.02E2,4.1E1,2E0,1E0],"tree_param":{"num_deleted":"0","num_feature":"22","num_nodes":"13","size_leaf_vector":"1"}},{"base_weights":[7.342204E-1,-9.769396E0,2.725796E2,-4.2018272E1,1.1193041E1,3.499853E2,1.1064243E0,-1.5680504E0,-2.5295736E1,1.1539161E-1,5.8399E0,2.3873255E1,1.0428613E0,3.314548E-1,-2.4847297E-1],"categories":[],"categories_nodes":[],"categories_segments":[],"categories_sizes":[],"default_left":[0,0,0,0,0,0,0,0,0,0,0,0,0,0,0],"id":23,"left_children":[1,3,5,7,9,11,13,-1,-1,-1,-1,-1,-1,-1,-1],"loss_changes":[6.9080456E5,1.5798181E5,1.8873494E5,4.3896988E5,1.3297219E5,2.8374175E5,1.3360835E2,0E0,0E0,0E0,0E0,0E0,0E0,0E0,0E0],"parents":[2147483647,0,0,1,1,2,2,3,3,4,4,5,5,6,6],"right_children":[2,4,6,8,10,12,14,-1,-1,-1,-1,-1,-1,-1,-1],"split_conditions":[1.49E2,8.808909E1,1E0,1.45E2,1.31E2,9.2E1,1.52E2,-1.5680504E0,-2.5295736E1,1.1539161E-1,5.8399E0,2.3873255E1,1.0428613E0,3.314548E-1,-2.4847297E-1],"split_indices":[0,1,5,11,11,18,0,0,0,0,0,0,0,0,0],"split_type":[0,0,0,0,0,0,0,0,0,0,0,0,0,0,0],"sum_hessian":[2.4E2,2.32E2,8E0,9.1E1,1.41E2,6E0,2E0,9E1,1E0,1.31E2,1E1,4E0,2E0,1E0,1E0],"tree_param":{"num_deleted":"0","num_feature":"22","num_nodes":"15","size_leaf_vector":"1"}},{"base_weights":[7.144833E-1,-6.8086605E0,3.571686E2,-1.4438957E1,-4.3902297E0,-2.4226116E-1,4.4888336E2,2.2399564E-1,-3.8102996E0,2.902597E1,1.3493805E0],"categories":[],"categories_nodes":[],"categories_segments":[],"categories_sizes":[],"default_left":[0,0,0,0,0,0,0,0,0,0,0],"id":24,"left_children":[1,3,5,-1,7,-1,9,-1,-1,-1,-1],"loss_changes":[6.487109E5,1.6034866E5,1.6818494E5,0E0,1.5067719E5,0E0,2.0647994E5,0E0,0E0,0E0,0E0],"parents":[2147483647,0,0,1,1,2,2,4,4,6,6],"right_children":[2,4,6,-1,8,-1,10,-1,-1,-1,-1],"split_conditions":[1.52E2,8.6E1,7.773812E1,-1.4438957E1,1.25E2,-2.4226116E-1,1.6E2,2.2399564E-1,-3.8102996E0,2.902597E1,1.3493805E0],"split_indices":[0,0,1,0,12,0,0,0,0,0,0],"split_type":[0,0,0,0,0,0,0,0,0,0,0],"sum_hessian":[2.4E2,2.36E2,4E0,1E0,2.35E2,1E0,3E0,2.1E2,2.5E1,2E0,1E0],"tree_param":{"num_deleted":"0","num_feature":"22","num_nodes":"11","size_leaf_vector":"1"}},{"base_weights":[7.289996E-1,-6.5442824E0,3.4533676E2,-1.5357536E2,-2.060465E0,-2.3620462E-1,4.3403302E2,-1.3776029E1,3.3818492E-1,3.422648E-1,-3.6271122E0,2.805844E1,1.315646E0],"categories":[],"categories_nodes":[],"categories_segments":[],"categories_sizes":[],"default_left":[0,0,0,0,0,0,0,0,0,0,0,0,0],"id":25,"left_children":[1,3,5,7,9,-1,11,-1,-1,-1,-1,-1,-1],"loss_changes":[6.063095E5,1.5592831E5,1.5729581E5,1.3873162E5,1.4549386E5,0E0,1.9257719E5,0E0,0E0,0E0,0E0,0E0,0E0],"parents":[2147483647,0,0,1,1,2,2,3,3,4,4,6,6],"right_children":[2,4,6,8,10,-1,12,-1,-1,-1,-1,-1,-1],"split_conditions":[1.52E2,9.3E1,7.773812E1,6.3688564E1,1.25E2,-2.3620462E-1,1.6E2,-1.3776029E1,3.3818492E-1,3.422648E-1,-3.6271122E0,2.805844E1,1.315646E0],"split_indices":[0,0,1,1,12,0,0,0,0,0,0,0,0],"split_type":[0,0,0,0,0,0,0,0,0,0,0,0,0],"sum_hessian":[2.4E2,2.36E2,4E0,6E0,2.3E2,1E0,3E0,3E0,3E0,2.05E2,2.5E1,2E0,1E0],"tree_param":{"num_deleted":"0","num_feature":"22","num_nodes":"13","size_leaf_vector":"1"}},{"base_weights":[7.440642E-1,-8.830964E0,2.4854825E2,-4.99448E0,-1.8277576E2,3.1911224E2,1.0494986E0,-7.3908143E0,-2.4444388E-2,-2.46775E1,9.1526526E-1,2.176531E1,9.5424443E-1,3.090119E-1,-2.3029952E-1],"categories":[],"categories_nodes":[],"categories_segments":[],"categories_sizes":[],"default_left":[0,0,0,0,0,0,0,0,0,0,0,0,0,0,0],"id":26,"left_children":[1,3,5,7,9,11,13,-1,-1,-1,-1,-1,-1,-1,-1],"loss_changes":[5.740234E5,1.5457652E5,1.5684562E5,1.4728852E5,3.2148866E5,2.3572169E5,1.1551664E2,0E0,0E0,0E0,0E0,0E0,0E0,0E0,0E0],"parents":[2147483647,0,0,1,1,2,2,3,3,4,4,5,5,6,6],"right_children":[2,4,6,8,10,12,14,-1,-1,-1,-1,-1,-1,-1,-1],"split_conditions":[1.49E2,1.45E2,1E0,9.3E1,7.8571205E1,9.2E1,1.52E2,-7.3908143E0,-2.4444388E-2,-2.46775E1,9.1526526E-1,2.176531E1,9.5424443E-1,3.090119E-1,-2.3029952E-1],"split_indices":[0,11,5,0,1,18,0,0,0,0,0,0,0,0,0],"split_type":[0,0,0,0,0,0,0,0,0,0,0,0,0,0,0],"sum_hessian":[2.4E2,2.32E2,8E0,2.28E2,4E0,6E0,2E0,6E0,2.22E2,1E0,3E0,4E0,2E0,1E0,1E0],"tree_param":{"num_deleted":"0","num_feature":"22","num_nodes":"15","size_leaf_vector":"1"}},{"base_weights":[6.720927E-1,-6.1740875E0,3.250466E2,-1.3548813E1,-3.9038398E0,-2.2454202E-1,4.0855368E2,-2.5578403E0,4.2164293E-1,2.6397648E1,1.2588987E0],"categories":[],"categories_nodes":[],"categories_segments":[],"categories_sizes":[],"default_left":[0,0,0,0,0,0,0,0,0,0,0],"id":27,"left_children":[1,3,5,-1,7,-1,9,-1,-1,-1,-1],"loss_changes":[5.3720194E5,1.4141861E5,1.3942825E5,0E0,1.3800656E5,0E0,1.6980625E5,0E0,0E0,0E0,0E0],"parents":[2147483647,0,0,1,1,2,2,4,4,6,6],"right_children":[2,4,6,-1,8,-1,10,-1,-1,-1,-1],"split_conditions":[1.52E2,8.6E1,7.773812E1,-1.3548813E1,2.02E3,-2.2454202E-1,1.6E2,-2.5578403E0,4.2164293E-1,2.6397648E1,1.2588987E0],"split_indices":[0,0,1,0,3,0,0,0,0,0,0],"split_type":[0,0,0,0,0,0,0,0,0,0,0],"sum_hessian":[2.4E2,2.36E2,4E0,1E0,2.35E2,1E0,3E0,4.8E1,1.87E2,2E0,1E0],"tree_param":{"num_deleted":"0","num_feature":"22","num_nodes":"11","size_leaf_vector":"1"}},{"base_weights":[6.872312E-1,-8.2692995E0,2.324855E2,-4.524422E0,-1.7813083E2,2.9849954E2,9.5756084E-1,-1.3210093E1,-1.113353E-1,-2.3996616E1,8.651312E-1,2.0358313E1,8.944273E-1,2.9074556E-1,-2.1892849E-1],"categories":[],"categories_nodes":[],"categories_segments":[],"categories_sizes":[],"default_left":[0,0,0,0,0,0,0,0,0,0,0,0,0,0,0],"id":28,"left_children":[1,3,5,7,9,11,13,-1,-1,-1,-1,-1,-1,-1,-1],"loss_changes":[5.022646E5,1.4740783E5,1.3727106E5,1.3604798E5,3.0321462E5,2.0616781E5,1.0321935E2,0E0,0E0,0E0,0E0,0E0,0E0,0E0,0E0],"parents":[2147483647,0,0,1,1,2,2,3,3,4,4,5,5,6,6],"right_children":[2,4,6,8,10,12,14,-1,-1,-1,-1,-1,-1,-1,-1],"split_conditions":[1.49E2,1.45E2,1E0,8.6E1,7.8571205E1,9.2E1,1.52E2,-1.3210093E1,-1.113353E-1,-2.3996616E1,8.651312E-1,2.0358313E1,8.944273E-1,2.9074556E-1,-2.1892849E-1],"split_indices":[0,11,5,0,1,18,0,0,0,0,0,0,0,0,0],"split_type":[0,0,0,0,0,0,0,0,0,0,0,0,0,0,0],"sum_hessian":[2.4E2,2.32E2,8E0,2.28E2,4E0,6E0,2E0,1E0,2.27E2,1E0,3E0,4E0,2E0,1E0,1E0],"tree_param":{"num_deleted":"0","num_feature":"22","num_nodes":"15","size_leaf_vector":"1"}},{"base_weights":[5.900964E-1,-5.8556876E0,3.0600223E2,-3.466211E1,1.3322395E1,-2.1345527E-1,3.8463736E2,-1.2179757E0,-2.5077652E1,-3.2961175E-1,3.068465E0,2.4839113E1,1.2050656E0],"categories":[],"categories_nodes":[],"categories_segments":[],"categories_sizes":[],"default_left":[0,0,0,0,0,0,0,0,0,0,0,0,0],"id":29,"left_children":[1,3,5,7,9,-1,11,-1,-1,-1,-1,-1,-1],"loss_changes":[4.7622944E5,1.3139289E5,1.2363316E5,4.447503E5,1.3723216E5,0E0,1.49756E5,0E0,0E0,0E0,0E0,0E0,0E0],"parents":[2147483647,0,0,1,1,2,2,3,3,4,4,6,6],"right_children":[2,4,6,8,10,-1,12,-1,-1,-1,-1,-1,-1],"split_conditions":[1.52E2,8.861026E1,7.773812E1,8.623939E1,1.31E2,-2.1345527E-1,1.6E2,-1.2179757E0,-2.5077652E1,-3.2961175E-1,3.068465E0,2.4839113E1,1.2050656E0],"split_indices":[0,1,1,9,0,0,0,0,0,0,0,0,0],"split_type":[0,0,0,0,0,0,0,0,0,0,0,0,0],"sum_hessian":[2.4E2,2.36E2,4E0,9.4E1,1.42E2,1E0,3E0,9.3E1,1E0,1.01E2,4.1E1,2E0,1E0],"tree_param":{"num_deleted":"0","num_feature":"22","num_nodes":"13","size_leaf_vector":"1"}},{"base_weights":[5.7002723E-1,-5.6622987E0,2.958683E2,-1.284939E1,-3.5084288E0,-2.081189E-1,3.7191653E2,2.2939494E-1,-3.453915E0,2.4011145E1,1.1749389E0],"categories":[],"categories_nodes":[],"categories_segments":[],"categories_sizes":[],"default_left":[0,0,0,0,0,0,0,0,0,0,0],"id":30,"left_children":[1,3,5,-1,7,-1,9,-1,-1,-1,-1],"loss_changes":[4.4521047E5,1.2739178E5,1.1563206E5,0E0,1.2560348E5,0E0,1.3965875E5,0E0,0E0,0E0,0E0],"parents":[2147483647,0,0,1,1,2,2,4,4,6,6],"right_children":[2,4,6,-1,8,-1,10,-1,-1,-1,-1],"split_conditions":[1.52E2,8.6E1,7.773812E1,-1.284939E1,1.25E2,-2.081189E-1,1.6E2,2.2939494E-1,-3.453915E0,2.4011145E1,1.1749389E0],"split_indices":[0,0,1,0,12,0,0,0,0,0,0],"split_type":[0,0,0,0,0,0,0,0,0,0,0],"sum_hessian":[2.4E2,2.36E2,4E0,1E0,2.35E2,1E0,3E0,2.1E2,2.5E1,2E0,1E0],"tree_param":{"num_deleted":"0","num_feature":"22","num_nodes":"11","size_leaf_vector":"1"}},{"base_weights":[5.7847255E-1,-7.5767655E0,2.1164424E2,-3.87436E0,-1.7563158E2,2.7212482E2,-2.5140444E-2,-4.7109565E-1,4.8614526E0,-2.3371984E1,7.0901906E-1,1.8543882E1,8.414227E-1,2.010304E-1,-2.0291594E-1],"categories":[],"categories_nodes":[],"categories_segments":[],"categories_sizes":[],"default_left":[0,0,0,0,0,0,0,0,0,0,0,0,0,0,0],"id":31,"left_children":[1,3,5,7,9,11,13,-1,-1,-1,-1,-1,-1,-1,-1],"loss_changes":[4.1643484E5,1.4429377E5,1.1522375E5,1.2935682E5,2.8357184E5,1.702374E5,6.526858E1,0E0,0E0,0E0,0E0,0E0,0E0,0E0,0E0],"parents":[2147483647,0,0,1,1,2,2,3,3,4,4,5,5,6,6],"right_children":[2,4,6,8,10,12,14,-1,-1,-1,-1,-1,-1,-1,-1],"split_conditions":[1.49E2,1.45E2,1E0,1.31E2,7.8571205E1,9.2E1,1.52E2,-4.7109565E-1,4.8614526E0,-2.3371984E1,7.0901906E-1,1.8543882E1,8.414227E-1,2.010304E-1,-2.0291594E-1],"split_indices":[0,11,5,11,1,18,0,0,0,0,0,0,0,0,0],"split_type":[0,0,0,0,0,0,0,0,0,0,0,0,0,0,0],"sum_hessian":[2.4E2,2.32E2,8E0,2.28E2,4E0,6E0,2E0,2.17E2,1.1E1,1E0,3E0,4E0,2E0,1E0,1E0],"tree_param":{"num_deleted":"0","num_feature":"22","num_nodes":"15","size_leaf_vector":"1"}},{"base_weights":[5.5415916E-1,-5.3125477E0,2.7852524E2,-1.2516378E1,-3.2136385E0,-1.9784303E-1,3.5013498E2,-2.3761795E0,4.1761622E-1,2.2592646E1,1.1245298E0],"categories":[],"categories_nodes":[],"categories_segments":[],"categories_sizes":[],"default_left":[0,0,0,0,0,0,0,0,0,0,0],"id":32,"left_children":[1,3,5,-1,7,-1,9,-1,-1,-1,-1],"loss_changes":[3.9449644E5,1.21076164E5,1.0252775E5,0E0,1.2134392E5,0E0,1.2314675E5,0E0,0E0,0E0,0E0],"parents":[2147483647,0,0,1,1,2,2,4,4,6,6],"right_children":[2,4,6,-1,8,-1,10,-1,-1,-1,-1],"split_conditions":[1.52E2,8.6E1,7.773812E1,-1.2516378E1,2.02E3,-1.9784303E-1,1.6E2,-2.3761795E0,4.1761622E-1,2.2592646E1,1.1245298E0],"split_indices":[0,0,1,0,3,0,0,0,0,0,0],"split_type":[0,0,0,0,0,0,0,0,0,0,0],"sum_hessian":[2.4E2,2.36E2,4E0,1E0,2.35E2,1E0,3E0,4.8E1,1.87E2,2E0,1E0],"tree_param":{"num_deleted":"0","num_feature":"22","num_nodes":"11","size_leaf_vector":"1"}},{"base_weights":[5.6397974E-1,-5.107996E0,2.6930283E2,-3.246396E1,1.3101267E1,-1.9289696E-1,3.3855753E2,-1.1221039E0,-2.4363026E1,-2.9056498E-1,2.9359927E0,2.1839558E1,1.0964166E0],"categories":[],"categories_nodes":[],"categories_segments":[],"categories_sizes":[],"default_left":[0,0,0,0,0,0,0,0,0,0,0,0,0],"id":33,"left_children":[1,3,5,7,9,-1,11,-1,-1,-1,-1,-1,-1],"loss_changes":[3.6872716E5,1.18482586E5,9.589447E4,4.2206706E5,1.23716555E5,0E0,1.1483641E5,0E0,0E0,0E0,0E0,0E0,0E0],"parents":[2147483647,0,0,1,1,2,2,3,3,4,4,6,6],"right_children":[2,4,6,8,10,-1,12,-1,-1,-1,-1,-1,-1],"split_conditions":[1.52E2,8.861026E1,7.773812E1,8.623939E1,1.31E2,-1.9289696E-1,1.6E2,-1.1221039E0,-2.4363026E1,-2.9056498E-1,2.9359927E0,2.1839558E1,1.0964166E0],"split_indices":[0,1,1,9,0,0,0,0,0,0,0,0,0],"split_type":[0,0,0,0,0,0,0,0,0,0,0,0,0],"sum_hessian":[2.4E2,2.36E2,4E0,9.4E1,1.42E2,1E0,3E0,9.3E1,1E0,1.01E2,4.1E1,2E0,1E0],"tree_param":{"num_deleted":"0","num_feature":"22","num_nodes":"13","size_leaf_vector":"1"}},{"base_weights":[5.3538E-1,-4.948966E0,2.603863E2,-1.3530864E0,-1.4316481E2,-1.8807454E-1,3.2736362E2,-5.5815613E-1,3.525936E0,-2.2700228E1,4.9020216E-1,2.111157E1,1.0690062E0],"categories":[],"categories_nodes":[],"categories_segments":[],"categories_sizes":[],"default_left":[0,0,0,0,0,0,0,0,0,0,0,0,0],"id":34,"left_children":[1,3,5,7,9,-1,11,-1,-1,-1,-1,-1,-1],"loss_changes":[3.447407E5,1.1759707E5,8.969094E4,1.6436228E5,2.8974388E5,0E0,1.0708456E5,0E0,0E0,0E0,0E0,0E0,0E0],"parents":[2147483647,0,0,1,1,2,2,3,3,4,4,6,6],"right_children":[2,4,6,8,10,-1,12,-1,-1,-1,-1,-1,-1],"split_conditions":[1.52E2,1.45E2,7.773812E1,1.39E2,7.8571205E1,-1.8807454E-1,1.6E2,-5.5815613E-1,3.525936E0,-2.2700228E1,4.9020216E-1,2.111157E1,1.0690062E0],"split_indices":[0,11,1,0,1,0,0,0,0,0,0,0,0],"split_type":[0,0,0,0,0,0,0,0,0,0,0,0,0],"sum_hessian":[2.4E2,2.36E2,4E0,2.31E2,5E0,1E0,3E0,2.04E2,2.7E1,1E0,4E0,2E0,1E0],"tree_param":{"num_deleted":"0","num_feature":"22","num_nodes":"13","size_leaf_vector":"1"}},{"base_weights":[5.200226E-1,-6.6671734E0,1.8653076E2,-3.1057012E0,-1.6844916E2,2.4030219E2,-1.1128443E0,2.4752691E-1,-3.3098373E0,-2.213272E1,5.3828794E-1,1.6394243E1,7.1151847E-1,9.990936E-2,-1.8337269E-1],"categories":[],"categories_nodes":[],"categories_segments":[],"categories_sizes":[],"default_left":[0,0,0,0,0,0,0,0,0,0,0,0,0,0,0],"id":35,"left_children":[1,3,5,7,9,11,13,-1,-1,-1,-1,-1,-1,-1,-1],"loss_changes":[3.2343544E5,1.3372727E5,9.107622E4,1.1672304E5,2.5047388E5,1.3393388E5,3.1170673E1,0E0,0E0,0E0,0E0,0E0,0E0,0E0,0E0],"parents":[2147483647,0,0,1,1,2,2,3,3,4,4,5,5,6,6],"right_children":[2,4,6,8,10,12,14,-1,-1,-1,-1,-1,-1,-1,-1],"split_conditions":[1.49E2,1.45E2,1E0,1.25E2,7.8571205E1,9.2E1,1.52E2,2.4752691E-1,-3.3098373E0,-2.213272E1,5.3828794E-1,1.6394243E1,7.1151847E-1,9.990936E-2,-1.8337269E-1],"split_indices":[0,11,5,12,1,18,0,0,0,0,0,0,0,0,0],"split_type":[0,0,0,0,0,0,0,0,0,0,0,0,0,0,0],"sum_hessian":[2.4E2,2.32E2,8E0,2.28E2,4E0,6E0,2E0,2.03E2,2.5E1,1E0,3E0,4E0,2E0,1E0,1E0],"tree_param":{"num_deleted":"0","num_feature":"22","num_nodes":"15","size_leaf_vector":"1"}},{"base_weights":[4.6234316E-1,-4.7007847E0,2.4510214E2,-1.216765E1,-2.6583898E0,-1.7878838E-1,3.0816556E2,4.1223276E-2,-6.815263E0,1.9861376E1,1.0244931E0],"categories":[],"categories_nodes":[],"categories_segments":[],"categories_sizes":[],"default_left":[0,0,0,0,0,0,0,0,0,0,0],"id":36,"left_children":[1,3,5,-1,7,-1,9,-1,-1,-1,-1],"loss_changes":[3.0556084E5,1.148721E5,7.951431E4,0E0,1.0996393E5,0E0,9.434466E4,0E0,0E0,0E0,0E0],"parents":[2147483647,0,0,1,1,2,2,4,4,6,6],"right_children":[2,4,6,-1,8,-1,10,-1,-1,-1,-1],"split_conditions":[1.52E2,8.6E1,7.773812E1,-1.216765E1,1.45E2,-1.7878838E-1,1.6E2,4.1223276E-2,-6.815263E0,1.9861376E1,1.0244931E0],"split_indices":[0,0,1,0,11,0,0,0,0,0,0],"split_type":[0,0,0,0,0,0,0,0,0,0,0],"sum_hessian":[2.4E2,2.36E2,4E0,1E0,2.35E2,1E0,3E0,2.3E2,5E0,2E0,1E0],"tree_param":{"num_deleted":"0","num_feature":"22","num_nodes":"11","size_leaf_vector":"1"}},{"base_weights":[4.4655126E-1,-6.310578E0,1.753315E2,-2.951518E0,-1.5889339E2,2.2489206E2,1.246327E0,-6.3886085E0,4.8992727E-2,-2.1409023E1,7.736745E-1,1.5340421E1,6.7003924E-1,2.677932E-1,-1.7431867E-1],"categories":[],"categories_nodes":[],"categories_segments":[],"categories_sizes":[],"default_left":[0,0,0,0,0,0,0,0,0,0,0,0,0,0,0],"id":37,"left_children":[1,3,5,7,9,11,13,-1,-1,-1,-1,-1,-1,-1,-1],"loss_changes":[2.8590097E5,1.1895162E5,7.736956E4,1.1249929E5,2.4139917E5,1.1716072E5,7.7020164E1,0E0,0E0,0E0,0E0,0E0,0E0,0E0,0E0],"parents":[2147483647,0,0,1,1,2,2,3,3,4,4,5,5,6,6],"right_children":[2,4,6,8,10,12,14,-1,-1,-1,-1,-1,-1,-1,-1],"split_conditions":[1.49E2,1.45E2,1E0,9.3E1,7.8571205E1,9.2E1,1.52E2,-6.3886085E0,4.8992727E-2,-2.1409023E1,7.736745E-1,1.5340421E1,6.7003924E-1,2.677932E-1,-1.7431867E-1],"split_indices":[0,11,5,0,1,18,0,0,0,0,0,0,0,0,0],"split_type":[0,0,0,0,0,0,0,0,0,0,0,0,0,0,0],"sum_hessian":[2.4E2,2.32E2,8E0,2.28E2,4E0,6E0,2E0,6E0,2.22E2,1E0,3E0,4E0,2E0,1E0,1E0],"tree_param":{"num_deleted":"0","num_feature":"22","num_nodes":"15","size_leaf_vector":"1"}},{"base_weights":[3.7911576E-1,-4.482695E0,2.3075314E2,-1.1703743E1,-2.5180044E0,-1.6996072E-1,2.9014102E2,2.4795632E-1,-3.1550477E0,1.8687983E1,9.821297E-1],"categories":[],"categories_nodes":[],"categories_segments":[],"categories_sizes":[],"default_left":[0,0,0,0,0,0,0,0,0,0,0],"id":38,"left_children":[1,3,5,-1,7,-1,9,-1,-1,-1,-1],"loss_changes":[2.7096284E5,1.0631599E5,7.051531E4,0E0,1.0721778E5,0E0,8.313322E4,0E0,0E0,0E0,0E0],"parents":[2147483647,0,0,1,1,2,2,4,4,6,6],"right_children":[2,4,6,-1,8,-1,10,-1,-1,-1,-1],"split_conditions":[1.52E2,8.6E1,7.773812E1,-1.1703743E1,1.25E2,-1.6996072E-1,1.6E2,2.4795632E-1,-3.1550477E0,1.8687983E1,9.821297E-1],"split_indices":[0,0,1,0,12,0,0,0,0,0,0],"split_type":[0,0,0,0,0,0,0,0,0,0,0],"sum_hessian":[2.4E2,2.36E2,4E0,1E0,2.35E2,1E0,3E0,2.1E2,2.5E1,2E0,1E0],"tree_param":{"num_deleted":"0","num_feature":"22","num_nodes":"11","size_leaf_vector":"1"}},{"base_weights":[3.8044724E-1,-4.32021E0,2.2311551E2,-3.014107E1,1.2863719E1,-1.6571169E-1,2.805515E2,-1.0213704E0,-2.3580631E1,1.208093E0,-3.1071596E0,1.806505E1,9.5757645E-1],"categories":[],"categories_nodes":[],"categories_segments":[],"categories_sizes":[],"default_left":[0,0,0,0,0,0,0,0,0,0,0,0,0],"id":39,"left_children":[1,3,5,7,9,-1,11,-1,-1,-1,-1,-1,-1],"loss_changes":[2.532912E5,1.0554552E5,6.595591E4,3.9775512E5,1.2268523E5,0E0,7.751219E4,0E0,0E0,0E0,0E0,0E0,0E0],"parents":[2147483647,0,0,1,1,2,2,3,3,4,4,6,6],"right_children":[2,4,6,8,10,-1,12,-1,-1,-1,-1,-1,-1],"split_conditions":[1.52E2,8.861026E1,7.773812E1,8.623939E1,1.1718928E2,-1.6571169E-1,1.6E2,-1.0213704E0,-2.3580631E1,1.208093E0,-3.1071596E0,1.806505E1,9.5757645E-1],"split_indices":[0,1,1,9,10,0,0,0,0,0,0,0,0],"split_type":[0,0,0,0,0,0,0,0,0,0,0,0,0],"sum_hessian":[2.4E2,2.36E2,4E0,9.4E1,1.42E2,1E0,3E0,9.3E1,1E0,1.24E2,1.8E1,2E0,1E0],"tree_param":{"num_deleted":"0","num_feature":"22","num_nodes":"13","size_leaf_vector":"1"}},{"base_weights":[3.2970625E-1,-5.8337064E0,1.5985698E2,-2.533973E0,-1.5579475E2,2.0516966E2,8.417098E-1,-5.085313E-1,3.0093963E0,-2.0854464E1,6.9005984E-1,1.3984917E1,6.282664E-1,2.2469711E-1,-1.6156888E-1],"categories":[],"categories_nodes":[],"categories_segments":[],"categories_sizes":[],"default_left":[0,0,0,0,0,0,0,0,0,0,0,0,0,0,0],"id":40,"left_children":[1,3,5,7,9,11,13,-1,-1,-1,-1,-1,-1,-1,-1],"loss_changes":[2.3789155E5,1.14900945E5,6.4675984E4,1.1029979E5,2.273288E5,9.696731E4,5.9149208E1,0E0,0E0,0E0,0E0,0E0,0E0,0E0,0E0],"parents":[2147483647,0,0,1,1,2,2,3,3,4,4,5,5,6,6],"right_children":[2,4,6,8,10,12,14,-1,-1,-1,-1,-1,-1,-1,-1],"split_conditions":[1.49E2,1.45E2,1E0,1.39E2,7.8571205E1,9.2E1,1.52E2,-5.085313E-1,3.0093963E0,-2.0854464E1,6.9005984E-1,1.3984917E1,6.282664E-1,2.2469711E-1,-1.6156888E-1],"split_indices":[0,11,5,0,1,18,0,0,0,0,0,0,0,0,0],"split_type":[0,0,0,0,0,0,0,0,0,0,0,0,0,0,0],"sum_hessian":[2.4E2,2.32E2,8E0,2.28E2,4E0,6E0,2E0,2.04E2,2.4E1,1E0,3E0,4E0,2E0,1E0,1E0],"tree_param":{"num_deleted":"0","num_feature":"22","num_nodes":"15","size_leaf_vector":"1"}},{"base_weights":[3.008267E-1,-4.1254005E0,2.1004382E2,-1.1372902E1,-2.2152705E0,-1.5752964E-1,2.6413007E2,-2.1420345E0,4.192527E-1,1.6996717E1,9.179304E-1],"categories":[],"categories_nodes":[],"categories_segments":[],"categories_sizes":[],"default_left":[0,0,0,0,0,0,0,0,0,0,0],"id":41,"left_children":[1,3,5,-1,7,-1,9,-1,-1,-1,-1],"loss_changes":[2.2460372E5,1.00598984E5,5.848658E4,0E0,1.01990875E5,0E0,6.828141E4,0E0,0E0,0E0,0E0],"parents":[2147483647,0,0,1,1,2,2,4,4,6,6],"right_children":[2,4,6,-1,8,-1,10,-1,-1,-1,-1],"split_conditions":[1.52E2,8.6E1,7.773812E1,-1.1372902E1,2.02E3,-1.5752964E-1,1.6E2,-2.1420345E0,4.192527E-1,1.6996717E1,9.179304E-1],"split_indices":[0,0,1,0,3,0,0,0,0,0,0],"split_type":[0,0,0,0,0,0,0,0,0,0,0],"sum_hessian":[2.4E2,2.36E2,4E0,1E0,2.35E2,1E0,3E0,4.8E1,1.87E2,2E0,1E0],"tree_param":{"num_deleted":"0","num_feature":"22","num_nodes":"11","size_leaf_vector":"1"}},{"base_weights":[3.0512717E-1,-3.974387E0,2.0309306E2,-5.3574883E1,4.311845E0,-1.535914E-1,2.5540225E2,-1.1552753E1,-1.7630951E0,-1.3583858E0,1.4951532E0,1.6430162E1,8.9498216E-1],"categories":[],"categories_nodes":[],"categories_segments":[],"categories_sizes":[],"default_left":[0,0,0,0,0,0,0,0,0,0,0,0,0],"id":42,"left_children":[1,3,5,7,9,-1,11,-1,-1,-1,-1,-1,-1],"loss_changes":[2.0995512E5,9.763829E4,5.4706125E4,1.0235907E5,1.6515486E5,0E0,6.3659812E4,0E0,0E0,0E0,0E0,0E0,0E0],"parents":[2147483647,0,0,1,1,2,2,3,3,4,4,6,6],"right_children":[2,4,6,8,10,-1,12,-1,-1,-1,-1,-1,-1],"split_conditions":[1.52E2,1.03E2,7.773812E1,1E0,1.22E2,-1.535914E-1,1.6E2,-1.1552753E1,-1.7630951E0,-1.3583858E0,1.4951532E0,1.6430162E1,8.9498216E-1],"split_indices":[0,0,1,15,18,0,0,0,0,0,0,0,0],"split_type":[0,0,0,0,0,0,0,0,0,0,0,0,0],"sum_hessian":[2.4E2,2.36E2,4E0,3.3E1,2.03E2,1E0,3E0,2E0,3.1E1,9.1E1,1.12E2,2E0,1E0],"tree_param":{"num_deleted":"0","num_feature":"22","num_nodes":"13","size_leaf_vector":"1"}},{"base_weights":[3.0643725E-1,-5.3225307E0,1.460001E2,-2.1234848E0,-1.5077432E2,1.8718411E2,1.2374188E0,-3.60687E-1,4.5263214E0,-2.024559E1,6.9940007E-1,1.2775766E1,5.4520226E-1,2.4255803E-1,-1.4975162E-1],"categories":[],"categories_nodes":[],"categories_segments":[],"categories_sizes":[],"default_left":[0,0,0,0,0,0,0,0,0,0,0,0,0,0,0],"id":43,"left_children":[1,3,5,7,9,11,13,-1,-1,-1,-1,-1,-1,-1,-1],"loss_changes":[1.984224E5,1.0809634E5,5.342553E4,1.0865209E5,2.1502531E5,8.153186E4,6.0414333E1,0E0,0E0,0E0,0E0,0E0,0E0,0E0,0E0],"parents":[2147483647,0,0,1,1,2,2,3,3,4,4,5,5,6,6],"right_children":[2,4,6,8,10,12,14,-1,-1,-1,-1,-1,-1,-1,-1],"split_conditions":[1.49E2,1.45E2,1E0,1.31E2,7.8571205E1,9.2E1,1.52E2,-3.60687E-1,4.5263214E0,-2.024559E1,6.9940007E-1,1.2775766E1,5.4520226E-1,2.4255803E-1,-1.4975162E-1],"split_indices":[0,11,5,11,1,18,0,0,0,0,0,0,0,0,0],"split_type":[0,0,0,0,0,0,0,0,0,0,0,0,0,0,0],"sum_hessian":[2.4E2,2.32E2,8E0,2.28E2,4E0,6E0,2E0,2.17E2,1.1E1,1E0,3E0,4E0,2E0,1E0,1E0],"tree_param":{"num_deleted":"0","num_feature":"22","num_nodes":"15","size_leaf_vector":"1"}},{"base_weights":[2.8295457E-1,-3.7456732E0,1.9118332E2,-1.1035485E1,-1.8911235E0,-1.4600782E-1,2.4043924E2,2.5821012E-1,-2.9537535E0,1.545663E1,8.589775E-1],"categories":[],"categories_nodes":[],"categories_segments":[],"categories_sizes":[],"default_left":[0,0,0,0,0,0,0,0,0,0,0],"id":44,"left_children":[1,3,5,-1,7,-1,9,-1,-1,-1,-1],"loss_changes":[1.8606114E5,9.494444E4,4.850583E4,0E0,9.55196E4,0E0,5.6035094E4,0E0,0E0,0E0,0E0],"parents":[2147483647,0,0,1,1,2,2,4,4,6,6],"right_children":[2,4,6,-1,8,-1,10,-1,-1,-1,-1],"split_conditions":[1.52E2,8.6E1,7.773812E1,-1.1035485E1,1.25E2,-1.4600782E-1,1.6E2,2.5821012E-1,-2.9537535E0,1.545663E1,8.589775E-1],"split_indices":[0,0,1,0,12,0,0,0,0,0,0],"split_type":[0,0,0,0,0,0,0,0,0,0,0],"sum_hessian":[2.4E2,2.36E2,4E0,1E0,2.35E2,1E0,3E0,2.1E2,2.5E1,2E0,1E0],"tree_param":{"num_deleted":"0","num_feature":"22","num_nodes":"11","size_leaf_vector":"1"}},{"base_weights":[2.789257E-1,-3.6163259E0,1.8485806E2,-2.8084476E1,1.2664028E1,-1.4235763E-1,2.3249615E2,-9.325228E-1,-2.287206E1,1.1738524E0,-2.9570396E0,1.4941408E1,8.375031E-1],"categories":[],"categories_nodes":[],"categories_segments":[],"categories_sizes":[],"default_left":[0,0,0,0,0,0,0,0,0,0,0,0,0],"id":45,"left_children":[1,3,5,7,9,-1,11,-1,-1,-1,-1,-1,-1],"loss_changes":[1.739432E5,9.476466E4,4.5371547E4,3.7627175E5,1.124175E5,0E0,5.2238094E4,0E0,0E0,0E0,0E0,0E0,0E0],"parents":[2147483647,0,0,1,1,2,2,3,3,4,4,6,6],"right_children":[2,4,6,8,10,-1,12,-1,-1,-1,-1,-1,-1],"split_conditions":[1.52E2,8.861026E1,7.773812E1,8.623939E1,1.1718928E2,-1.4235763E-1,1.6E2,-9.325228E-1,-2.287206E1,1.1738524E0,-2.9570396E0,1.4941408E1,8.375031E-1],"split_indices":[0,1,1,9,10,0,0,0,0,0,0,0,0],"split_type":[0,0,0,0,0,0,0,0,0,0,0,0,0],"sum_hessian":[2.4E2,2.36E2,4E0,9.4E1,1.42E2,1E0,3E0,9.3E1,1E0,1.24E2,1.8E1,2E0,1E0],"tree_param":{"num_deleted":"0","num_feature":"22","num_nodes":"13","size_leaf_vector":"1"}},{"base_weights":[2.2368771E-1,-4.9102416E0,1.3311055E2,-1.7674241E0,-1.4786923E2,1.7078847E2,8.252506E-1,-4.5851707E-1,2.95036E0,-1.9722593E1,6.1947024E-1,1.1649197E1,5.099927E-1,2.0069252E-1,-1.3879871E-1],"categories":[],"categories_nodes":[],"categories_segments":[],"categories_sizes":[],"default_left":[0,0,0,0,0,0,0,0,0,0,0,0,0,0,0],"id":46,"left_children":[1,3,5,7,9,11,13,-1,-1,-1,-1,-1,-1,-1,-1],"loss_changes":[1.6507145E5,1.0442414E5,4.4717156E4,1.0357039E5,2.0247203E5,6.75388E4,4.559094E1,0E0,0E0,0E0,0E0,0E0,0E0,0E0,0E0],"parents":[2147483647,0,0,1,1,2,2,3,3,4,4,5,5,6,6],"right_children":[2,4,6,8,10,12,14,-1,-1,-1,-1,-1,-1,-1,-1],"split_conditions":[1.49E2,1.45E2,1E0,1.39E2,7.8571205E1,9.2E1,1.52E2,-4.5851707E-1,2.95036E0,-1.9722593E1,6.1947024E-1,1.1649197E1,5.099927E-1,2.0069252E-1,-1.3879871E-1],"split_indices":[0,11,5,0,1,18,0,0,0,0,0,0,0,0,0],"split_type":[0,0,0,0,0,0,0,0,0,0,0,0,0,0,0],"sum_hessian":[2.4E2,2.32E2,8E0,2.28E2,4E0,6E0,2E0,2.04E2,2.4E1,1E0,3E0,4E0,2E0,1E0,1E0],"tree_param":{"num_deleted":"0","num_feature":"22","num_nodes":"15","size_leaf_vector":"1"}},{"base_weights":[1.9428688E-1,-3.4735007E0,1.7400856E2,-1.0724822E1,-1.6704526E0,-1.3532877E-1,2.18864E2,-1.2842383E0,6.925196E-1,1.4055056E1,8.0381566E-1],"categories":[],"categories_nodes":[],"categories_segments":[],"categories_sizes":[],"default_left":[0,0,0,0,0,0,0,0,0,0,0],"id":47,"left_children":[1,3,5,-1,7,-1,9,-1,-1,-1,-1],"loss_changes":[1.5424527E5,8.981652E4,4.0225547E4,0E0,8.831824E4,0E0,4.5964594E4,0E0,0E0,0E0,0E0],"parents":[2147483647,0,0,1,1,2,2,4,4,6,6],"right_children":[2,4,6,-1,8,-1,10,-1,-1,-1,-1],"split_conditions":[1.52E2,8.6E1,7.773812E1,-1.0724822E1,1.22E2,-1.3532877E-1,1.6E2,-1.2842383E0,6.925196E-1,1.4055056E1,8.0381566E-1],"split_indices":[0,0,1,0,18,0,0,0,0,0,0],"split_type":[0,0,0,0,0,0,0,0,0,0,0],"sum_hessian":[2.4E2,2.36E2,4E0,1E0,2.35E2,1E0,3E0,9.2E1,1.43E2,2E0,1E0],"tree_param":{"num_deleted":"0","num_feature":"22","num_nodes":"11","size_leaf_vector":"1"}},{"base_weights":[1.9870935E-1,-4.621498E0,1.24966446E2,-1.5740789E0,-1.43269E2,1.601235E2,1.2778078E0,-4.3748298E-1,2.8664324E0,-1.9197424E1,6.4439905E-1,1.0927814E1,4.6805403E-1,2.2778116E-1,-1.3194557E-1],"categories":[],"categories_nodes":[],"categories_segments":[],"categories_sizes":[],"default_left":[0,0,0,0,0,0,0,0,0,0,0,0,0,0,0],"id":48,"left_children":[1,3,5,7,9,11,13,-1,-1,-1,-1,-1,-1,-1,-1],"loss_changes":[1.4551647E5,9.822096E4,3.893214E4,9.729105E4,1.9286722E5,5.962033E4,5.0536728E1,0E0,0E0,0E0,0E0,0E0,0E0,0E0,0E0],"parents":[2147483647,0,0,1,1,2,2,3,3,4,4,5,5,6,6],"right_children":[2,4,6,8,10,12,14,-1,-1,-1,-1,-1,-1,-1,-1],"split_conditions":[1.49E2,1.45E2,1E0,1.39E2,7.8571205E1,9.2E1,1.52E2,-4.3748298E-1,2.8664324E0,-1.9197424E1,6.4439905E-1,1.0927814E1,4.6805403E-1,2.2778116E-1,-1.3194557E-1],"split_indices":[0,11,5,0,1,18,0,0,0,0,0,0,0,0,0],"split_type":[0,0,0,0,0,0,0,0,0,0,0,0,0,0,0],"sum_hessian":[2.4E2,2.32E2,8E0,2.28E2,4E0,6E0,2E0,2.04E2,2.4E1,1E0,3E0,4E0,2E0,1E0,1E0],"tree_param":{"num_deleted":"0","num_feature":"22","num_nodes":"15","size_leaf_vector":"1"}},{"base_weights":[1.6955239E-1,-3.2835877E0,1.6381448E2,-5.0293713E1,4.567529E0,-1.2864695E-1,2.0605457E2,-1.1126379E1,-1.6287556E0,-1.261535E0,1.4393808E0,1.3222292E1,7.720189E-1],"categories":[],"categories_nodes":[],"categories_segments":[],"categories_sizes":[],"default_left":[0,0,0,0,0,0,0,0,0,0,0,0,0],"id":49,"left_children":[1,3,5,7,9,-1,11,-1,-1,-1,-1,-1,-1],"loss_changes":[1.3672433E5,8.770215E4,3.567125E4,9.65104E4,1.4795634E5,0E0,4.0437688E4,0E0,0E0,0E0,0E0,0E0,0E0],"parents":[2147483647,0,0,1,1,2,2,3,3,4,4,6,6],"right_children":[2,4,6,8,10,-1,12,-1,-1,-1,-1,-1,-1],"split_conditions":[1.52E2,1.03E2,7.773812E1,1E0,1.22E2,-1.2864695E-1,1.6E2,-1.1126379E1,-1.6287556E0,-1.261535E0,1.4393808E0,1.3222292E1,7.720189E-1],"split_indices":[0,0,1,15,18,0,0,0,0,0,0,0,0],"split_type":[0,0,0,0,0,0,0,0,0,0,0,0,0],"sum_hessian":[2.4E2,2.36E2,4E0,3.3E1,2.03E2,1E0,3E0,2E0,3.1E1,9.1E1,1.12E2,2E0,1E0],"tree_param":{"num_deleted":"0","num_feature":"22","num_nodes":"13","size_leaf_vector":"1"}}]},"name":"gbtree"},"learner_model_param":{"base_score":"-4.770134E0","boost_from_average":"1","num_class":"0","num_feature":"22","num_target":"1"},"objective":{"name":"reg:squarederror","reg_loss_param":{"scale_pos_weight":"1"}}},"version":[2,1,3]}